nep4 3 I Cs Pb 
cutoff 8 5 55 16
n_max 4 4
basis_size 8 8
l_max 4 2 0
ANN 30 0
  4.9747336e-01
  9.5543467e-02
  1.6652054e-01
 -9.7964099e-03
  2.7324924e-01
  2.9096376e-02
 -2.6037380e-05
  7.0575095e-04
 -1.3385027e-02
 -1.3583248e-02
  2.6769862e-01
  2.8549770e-03
  2.2135214e-04
 -4.7936510e-02
  3.4195571e-03
  9.3561217e-02
  2.6665065e-01
  2.0461426e-05
 -2.9904133e-02
 -3.3702374e-02
  1.4469363e-01
  1.4290325e-01
  1.7616170e-04
  5.0151011e-04
  2.6383303e-04
  1.5271619e-04
  1.2309619e-02
  1.2318324e-04
  1.7830692e-04
  5.1128175e-03
  3.1309639e-05
  3.2079766e-05
  1.7871120e-04
  3.6973885e-04
  2.7713200e-04
 -1.5070965e-04
 -1.9362693e-04
 -3.0471218e-05
 -1.2205628e-04
  5.0473155e-04
 -6.7168643e-05
 -2.1072137e-05
  3.3380877e-04
  4.7954103e-08
 -1.3872396e-04
  2.2574879e-05
  9.9603581e-05
 -7.1111121e-05
  9.8148645e-05
 -7.6918135e-05
 -1.4757432e-04
 -3.6312329e-05
 -3.7040128e-04
  4.7901711e-05
  3.0009571e-04
 -4.0613002e-05
 -1.2201734e-05
  8.7831802e-05
  1.3823663e-04
  3.3006939e-04
 -3.1295922e-04
  1.9792562e-04
 -8.3526591e-04
 -2.4133852e-04
 -1.9578798e-05
  1.2670804e-04
 -5.0438027e-04
  1.2658673e-04
  6.6429784e-05
 -2.5255611e-04
  3.9021841e-05
 -1.1087503e-04
 -1.3959287e-05
 -3.0480686e-04
 -1.4527714e-04
 -3.9732367e-05
 -2.7220640e-05
 -3.5750691e-05
 -6.1345963e-05
  5.1283609e-04
 -3.5213053e-04
 -4.6352357e-05
 -2.6949068e-05
  1.0691694e-05
 -7.2788134e-05
 -3.6095746e-04
 -3.0679181e-05
 -2.0986075e-04
 -3.9394633e-04
 -2.2866794e-04
 -6.5888949e-02
 -4.6525143e-02
 -1.0854261e-01
  5.2101375e-03
 -4.7572750e-01
 -2.5888145e-05
  2.7340135e-04
 -1.8324317e-05
  9.4634794e-05
  8.4020216e-03
 -6.5933265e-02
 -2.9155198e-01
  6.8357482e-04
  9.5514776e-03
 -4.3178266e-01
 -3.5721168e-04
 -6.7091510e-02
 -5.2701947e-05
  4.2848107e-05
 -1.4450143e-04
 -2.2618999e-03
 -7.5513188e-04
 -8.6974105e-05
  4.2936110e-05
 -1.5148733e-04
  2.2933412e-04
 -3.6948975e-04
  1.4439657e-04
 -3.3995821e-04
  8.4237245e-06
 -5.7894944e-05
 -1.6087157e-04
 -7.7603050e-05
  1.0459985e-04
 -1.1319266e-04
 -2.2415552e-04
 -9.0950431e-07
  1.2698582e-04
 -6.2108934e-06
 -1.2555778e-04
 -1.5055586e-05
 -2.1607739e-04
 -8.8543515e-05
 -1.5875474e-05
 -8.9934925e-05
 -2.4091640e-05
  1.5219755e-04
 -3.6182115e-05
 -1.7475772e-04
 -4.2433655e-04
  1.0418044e-04
  2.5417143e-04
  1.4774338e-05
  2.8734069e-04
 -1.5508273e-04
 -2.1674925e-06
  5.2260428e-05
  1.8665112e-04
  2.0307858e-05
 -3.0046719e-04
  1.1135651e-01
  2.2042127e-01
  2.2737274e-04
 -1.5397330e-02
  1.3167186e-01
 -1.9266274e-04
  2.7078742e-01
 -4.0552099e-04
 -6.2066368e-03
 -2.1138433e-01
  9.0332262e-02
  4.2145520e-02
 -8.0348400e-05
 -7.4474886e-02
  5.9204114e-05
  7.5270550e-04
  6.0654227e-02
 -2.0090141e-04
 -5.7028494e-05
 -5.4203509e-03
  1.6873321e-03
  6.1501968e-03
 -3.4356207e-04
  1.4834822e-04
  2.3432904e-04
 -4.3706656e-05
  1.2836688e-04
  1.3146592e-04
  5.5991502e-05
  8.5844265e-05
 -1.2562054e-01
 -5.1820278e-01
 -1.2087238e-03
  2.4932727e-02
 -6.8530536e-01
 -1.2270447e-01
 -8.0645237e-05
  3.5843561e-07
  2.1123274e-01
  1.1692756e-01
 -3.7216106e-01
 -6.9473530e-03
 -2.0929567e-05
  1.7880633e-01
 -8.7033206e-04
 -1.1760776e-01
 -3.4460372e-01
  1.1416185e-04
  2.8712029e-02
  1.3646152e-04
 -1.8540959e-01
 -1.7933173e-01
 -1.7076713e-04
  1.2095139e-05
 -1.0019245e-03
 -1.5613803e-04
 -1.9849991e-02
  4.7463897e-04
 -1.2657979e-04
 -1.5581459e-01
  1.9342332e-04
  3.0560364e-04
 -1.4541542e-05
 -1.7876709e-04
 -2.0658335e-04
  1.7965157e-04
 -6.7162968e-05
  3.7306632e-04
  2.0506857e-04
  2.0003454e-04
 -1.1705608e-04
  3.3062117e-04
 -2.8211200e-05
  1.3802413e-04
  1.4508648e-05
  2.0298587e-04
 -1.3227036e-04
 -9.9564830e-05
  1.3499719e-05
  2.9798855e-05
  9.9739198e-05
 -1.5459385e-05
  8.0097074e-05
  4.5553759e-05
 -3.4391651e-05
  8.2218467e-05
  2.3277865e-04
 -1.4183568e-04
 -1.0796425e-04
  3.0221709e-05
  3.3466576e-04
  6.5067573e-04
 -9.2906659e-05
  1.3165765e-05
 -1.3563578e-03
 -9.7915101e-05
 -1.0813981e-04
  2.3629511e-04
  3.0128410e-04
 -2.7855695e-03
  5.3200278e-05
  2.0381075e-04
 -5.2953856e-06
 -2.1569835e-04
  2.1065342e-04
  1.4850216e-04
  3.0993124e-05
 -1.6431299e-04
  1.4980094e-05
 -1.4863361e-04
  2.7919552e-04
 -1.9590161e-04
  3.1809421e-05
 -8.2224891e-05
 -2.4550111e-04
  2.1776451e-04
  3.6988940e-04
  1.4432511e-04
 -1.9768317e-04
  3.9342922e-05
  4.0846005e-01
  3.9291233e-01
  3.2362502e-02
 -4.3610934e-02
  5.0404370e-02
  9.0752207e-03
  1.2257313e-01
  2.8427958e-04
 -9.3466945e-02
 -2.3178260e-01
  4.2815697e-01
  3.8506280e-04
  1.5362614e-04
 -1.3807596e-01
  2.7145963e-02
  1.6801484e-01
  4.5359057e-01
  3.2562268e-06
 -9.6576206e-02
 -3.4522775e-01
  3.2306379e-01
  2.9092082e-01
  4.6085450e-05
  4.7518764e-02
  1.0062695e-04
  1.2464057e-04
  1.4715314e-02
 -1.9399158e-04
  2.6540170e-04
  2.1990668e-02
  4.3874177e-05
 -1.3380252e-04
 -2.2434762e-04
 -6.6559121e-05
 -1.8922117e-04
 -5.3938613e-05
 -4.7247627e-04
 -3.0612118e-05
  4.7705517e-04
 -3.2251334e-04
 -1.5118932e-04
 -2.9144908e-04
 -5.3510263e-05
  1.6166465e-04
  7.9904115e-05
  3.3868724e-05
  2.3968756e-05
  2.5258812e-06
 -5.1661715e-05
 -6.5147929e-04
  9.5750744e-05
 -4.1920011e-05
 -2.4455466e-04
  2.4207451e-05
 -2.5272922e-04
 -3.2763722e-04
 -3.2084389e-04
  3.9747796e-05
  1.0987594e-04
 -1.1251038e-05
  1.0408995e-04
 -1.0556835e-05
  1.2243743e-04
  1.2993295e-04
  2.5064674e-05
  1.3777045e-04
 -1.9812343e-05
  1.7002290e-04
 -2.6486581e-04
  3.3741360e-04
  2.2476177e-04
  2.0259118e-04
 -1.7480887e-04
 -4.4400560e-05
  3.2917940e-06
  2.4900443e-04
 -1.0280922e-04
 -1.5941067e-04
 -2.3445869e-05
 -8.0593838e-04
 -4.3448777e-05
  7.5987866e-04
  5.4510212e-05
 -2.1201288e-04
 -5.7423233e-05
  9.4645759e-05
 -2.0929310e-04
 -7.6936260e-05
  3.0617757e-05
 -4.1128606e-05
  3.6362291e-04
  5.3621421e-05
 -4.4666938e-04
 -8.0789418e-05
  3.8579915e-04
  1.2578565e-04
  2.2928060e-04
  4.6889785e-05
 -4.2089535e-04
 -2.8133206e-04
  1.0168571e-04
  3.7195632e-06
  1.4509681e-04
  4.4927026e-05
  2.8662739e-04
  9.1310663e-05
  4.4275736e-04
  1.1501877e-04
  4.5648510e-05
 -7.2141935e-05
  8.5277126e-05
  2.6810911e-04
  2.1108064e-04
  3.9818155e-05
 -1.2594931e-04
 -1.9137599e-04
  3.0988888e-04
  3.4057541e-04
 -7.3227755e-05
  2.2608736e-04
 -7.1929574e-02
 -5.0530666e-01
 -2.3651662e-01
  3.0993900e-01
 -2.2291870e+00
 -2.4833797e-01
 -1.3914662e-05
  3.3918190e-05
  4.8555547e-01
  1.3825557e+00
 -5.4798192e-01
  3.0199668e-01
  1.2865290e-04
  5.3405362e-01
  3.0391079e-01
 -2.9889160e-01
 -5.1505547e-02
 -5.8860231e-05
  2.6911596e-02
  1.0012207e-01
 -2.1662480e-01
 -8.4022962e-04
 -1.3374561e-04
  4.8373957e-05
  4.6156417e-04
 -1.9048761e-04
 -1.9149850e-04
 -1.6807078e-04
  6.2866462e-04
 -1.4742383e-01
 -3.2089177e-01
 -2.6383173e-01
  2.0133121e-01
  1.3411839e-01
 -6.7348746e-03
 -5.5970777e-02
 -1.5193361e-01
 -1.2600108e-04
  2.4065515e-02
  5.5064034e-01
 -2.1919000e-01
 -1.6145468e-02
  1.1192510e-05
  7.1702763e-02
 -6.5666123e-04
 -3.3759553e-02
 -9.3419194e-02
 -1.7279643e-04
  1.9745326e-02
  7.4037239e-02
 -1.0455926e-01
 -1.2336935e-01
 -1.0488569e-04
 -2.4561034e-04
  1.1583490e-04
  1.5643405e-04
 -1.2451950e-02
  1.3408581e-04
 -1.2620460e-04
 -6.7875464e-03
  1.2476695e-05
  1.3394145e-05
  5.0552801e-04
 -4.6511436e-06
  2.5743124e-04
 -1.2650051e-04
  1.0063209e-04
  3.7296282e-04
 -7.8025609e-05
 -2.5559149e-05
  8.3714607e-05
  2.4016865e-03
  1.6883414e-05
 -3.3688084e-05
 -1.0328958e-05
  1.4912340e-04
 -5.5843699e-05
 -2.7919959e-04
 -1.4327049e-04
  1.8624574e-05
 -7.7072083e-04
  2.2369899e-05
  1.1752690e-04
 -1.9490896e-04
  1.4103022e-04
  1.8225260e-04
  2.5128986e-04
  4.2049678e-06
  3.5317792e-04
  2.8738661e-05
  4.4435833e-04
 -1.9754589e-04
 -2.1844938e-04
  4.0069301e-04
 -2.7553417e-04
 -1.8368053e-05
 -6.7490575e-05
  1.9824886e-04
  1.0287099e-04
 -7.5707644e-06
  5.9905822e-05
  2.6399526e-04
  9.9143099e-06
 -1.1273273e-04
  8.9883186e-05
  2.5204101e-04
  3.4823443e-05
 -1.3519988e-04
  3.2523685e-04
  5.7715508e-05
  1.7074261e-04
 -5.7678804e-05
  6.0650062e-05
 -2.2127588e-04
 -1.1561925e-04
  3.5677705e-05
  3.2117520e-04
  3.9587492e-05
  1.2084316e-03
 -1.2782750e-04
 -1.3418341e-04
  5.7711604e-06
 -3.6191745e-05
  2.7241479e-06
  1.6021164e-05
 -2.6614717e-04
  1.6941580e-04
 -1.3141807e-04
  1.2446276e-04
  9.2763687e-05
  2.1220797e-03
  6.3658706e-05
 -8.3179430e-06
 -4.9948441e-05
  1.7747363e-04
  3.0089666e-06
 -1.8653829e-04
  3.0372576e-05
  4.5536759e-05
 -5.0239649e-04
  5.1081846e-05
 -1.1997653e-04
  1.4958404e-03
 -1.3707110e-04
 -2.0173256e-05
 -1.2391878e-04
 -4.4862274e-05
  2.3501569e-04
  1.0117781e-04
 -4.0441853e-04
  2.9999661e-05
 -5.1698746e-05
 -1.9917755e-04
  7.4385294e-05
 -8.2133403e-05
 -2.0264044e-04
 -7.1178982e-04
 -5.5644290e-05
  8.3971217e-06
  1.3595729e-04
 -1.6298710e-04
  3.3886009e-04
  1.3345007e-04
  8.3565566e-05
 -4.5797100e-05
 -8.6210393e-06
 -5.7242811e-05
 -3.1247083e-04
 -1.9521761e-04
  1.6180740e-05
 -4.1935427e-04
 -2.2024717e-04
  6.6296176e-05
  8.2185652e-05
 -4.4353914e-05
  1.2435949e-04
 -8.8126608e-04
 -6.5083084e-05
  5.2559750e-05
  8.3519597e-05
 -1.1471775e-01
 -2.9287705e-01
  8.6303269e-05
  3.1748455e-04
 -1.1657797e-01
 -3.1380270e-02
 -1.2089450e+00
 -3.6267826e-04
 -6.1637658e-04
  8.1993238e-04
 -1.0757485e-01
 -6.1500218e-04
  2.0204794e-05
  1.4069556e-01
 -6.7206885e-05
 -5.4643647e-04
 -2.8810242e-01
  3.0751445e-04
  1.6410691e-05
 -7.9490821e-04
 -1.5884746e-03
 -6.3643936e-04
 -5.7190682e-06
 -1.0684456e-04
 -2.2185348e-05
  3.8507849e-04
 -4.8472950e-05
  3.4959572e-05
 -1.3191988e-05
 -1.0966024e-02
  8.7274311e-05
  5.0714920e-05
 -7.7295153e-05
  4.7132431e-04
  3.4455693e-04
  1.4853496e-04
  9.4717114e-05
  2.9758141e-05
 -1.9438664e-04
 -2.0898291e-05
 -3.4607718e-05
 -6.1140646e-04
  3.0992759e-04
 -3.7616210e-05
 -3.5639419e-04
 -2.7187361e-04
 -9.5867486e-05
  1.5861640e-04
  6.5425054e-05
  2.9837817e-04
 -3.6185357e-04
 -1.3669823e-05
  3.9701248e-05
  1.3769980e-04
  1.6219214e-05
  1.4551762e-04
  1.3577340e-04
  1.1163900e-04
  8.3371749e-05
  5.3112457e-05
 -6.5204506e-05
 -9.1976857e-05
  9.1645168e-05
  5.0664903e-06
  4.6405799e-04
 -2.5995009e-04
  5.2769967e-05
 -9.2655573e-05
 -4.3476866e-06
  3.7901184e-05
 -1.7759248e-04
 -2.5065444e-04
  7.7571877e-04
 -1.5386779e-04
 -3.6784717e-05
  3.7704514e-05
 -6.6259046e-05
  2.0322439e-04
  5.0313018e-05
  7.0400420e-05
 -8.6552849e-05
  7.4083378e-05
  1.7621100e-04
  1.2980000e-04
  2.4706438e-05
  3.8160526e-04
 -5.3160285e-05
  3.9428988e-04
 -1.2222919e-04
  5.3250912e-04
  3.9346257e-04
  7.2122115e-05
  1.1577213e-04
 -8.3328683e-05
 -8.6011860e-05
  1.3764393e-04
  3.5400943e-05
  2.1747290e-04
  5.0347455e-05
  5.7714304e-04
  1.9610867e-05
 -1.3894188e-04
  3.0844360e-05
  2.2189361e-04
  5.6875888e-05
  4.5370485e-05
  1.3264478e-04
 -1.0700392e-04
  3.2775023e-04
  5.9721089e-05
 -2.0173694e-04
 -5.2133284e-04
  7.9053229e-05
  5.3350599e-05
 -7.9135272e-05
  1.4783029e-04
 -1.8916355e-04
 -3.0464989e-05
 -1.8195481e-04
 -2.1295145e-05
  7.1862509e-05
  7.1266142e-05
 -3.2834604e-04
  5.4423159e-05
  1.1165780e-04
 -8.1258593e-05
  4.5774519e-05
 -1.7411921e-04
 -1.1839309e-04
 -1.2746370e-04
 -7.7947234e-06
  5.4417044e-04
 -4.6996379e-06
 -6.6190420e-05
 -1.9355399e-04
 -1.6253394e-04
 -1.3505155e-04
 -1.0091109e-04
  5.1020135e-05
  1.9837056e-04
  2.2236714e-03
 -1.9232855e-04
 -7.8324010e-05
 -1.0872509e-04
  3.3450613e-04
 -4.4679851e-05
  2.5557887e-04
 -9.1435999e-05
  2.7575803e-05
  9.7005563e-05
 -4.3962437e-01
 -1.5727001e-01
 -3.6739420e-05
  5.6591886e-03
 -2.8413260e-02
 -1.4294922e-01
 -1.2774892e-04
  7.4919619e-05
  2.3622597e-04
  2.8961138e-05
 -2.5470170e-01
 -1.8072962e-04
  5.2603351e-05
  4.2826802e-02
 -1.0502188e-03
 -1.3583613e-04
 -2.6766116e-02
 -3.5484921e-04
  2.4119270e-04
  5.1724160e-04
 -1.7691398e-04
 -1.1810355e-04
 -1.6806640e-04
  8.3160892e-05
 -1.4141871e-04
  5.1316957e-04
 -1.9031841e-05
 -2.8198786e-04
 -1.4504578e-04
 -3.1826337e-04
  3.0994079e-01
  1.8295571e-01
  1.4382387e-03
 -1.4202879e-02
  3.5137814e-02
  4.4525865e-02
  6.9325535e-05
 -1.6007647e-04
 -3.4601435e-02
 -1.9040366e-04
  2.2085482e-01
  1.0576870e-02
 -3.5613516e-04
 -1.1451196e-01
  5.5257259e-03
  8.0235433e-03
  2.1949656e-01
 -8.8990761e-05
 -1.1311157e-01
 -1.7186435e-04
  8.5810587e-02
  8.7856144e-02
  1.6913148e-04
  3.6347981e-05
  1.0030667e-02
 -9.9533165e-05
  3.4099001e-05
 -8.1495040e-05
  6.0543558e-04
  7.8630779e-04
 -2.0129940e-02
  8.2126595e-02
  9.9144465e-01
  3.7380092e-02
  1.9293971e+00
  4.5224346e-02
  1.5236162e-04
 -1.5735251e-04
  1.1352517e-04
 -5.1806587e-01
 -2.4441633e-02
 -1.8323209e+00
 -5.4448236e-07
 -1.4952269e-02
 -3.5392448e-02
 -1.4074563e-02
 -6.4822555e-01
  1.7912476e-04
  1.2081358e-02
 -1.0158095e+00
 -9.3203612e-02
 -3.3097750e-01
  2.0406528e-04
 -1.3693498e-01
 -6.5992065e-02
 -3.8836236e-04
 -1.0365504e-02
 -1.6043750e-04
 -2.4016220e-02
 -5.4326756e-03
  2.8375629e-04
  2.0501617e-05
 -3.4047986e-05
 -1.9525597e-04
  1.2015584e-05
 -1.2461780e-04
 -3.1106517e-04
  3.0195116e-04
 -1.2564698e-05
  2.2846178e-04
  3.3208700e-05
  1.1073491e-05
  7.8370787e-05
  9.7246011e-05
  1.0646831e-04
  7.0212336e-05
  5.6931585e-06
 -1.1458385e-04
 -1.3047968e-04
  7.1648523e-05
  1.8950301e-04
  3.4318285e-04
 -1.0007140e-06
  9.6749791e-05
  8.0107231e-05
 -3.5719681e-04
 -2.2008553e-06
  7.6303877e-06
 -5.4833112e-05
  4.1363899e-05
 -3.0745318e-02
 -3.0900210e-01
  2.6069371e-02
 -1.4557577e+00
 -1.5950321e+00
  4.9777128e-02
  3.6659518e-01
 -4.6704266e-05
  4.2157517e-05
  3.1824738e-02
  1.0373897e-04
  1.2450165e+00
 -7.4787094e-05
  2.4784970e-01
  1.1088884e+00
  2.3890945e-05
  3.2640514e-01
 -1.4935809e-05
 -1.2330661e-01
  3.6747929e-01
 -1.9918378e-04
  1.7750262e-01
  2.3992634e-05
  1.3858168e-01
 -6.9743495e-05
 -3.7330465e-05
  6.0214743e-04
  1.6737753e-05
  6.0373731e-03
 -8.8476315e-03
  2.4754595e-02
  2.0700679e-03
  1.5830579e-01
 -8.1169210e-02
  3.7183953e-04
 -3.1585034e-04
 -1.4744097e-01
  1.8797017e-04
  2.5732823e-05
 -1.8141694e-04
  9.9395798e-04
  4.5941901e-04
 -1.2666605e-04
 -6.0520023e-03
  5.6569395e-05
  2.2787035e-05
  6.4897438e-04
  5.8518082e-05
 -1.7162936e-04
  5.7839075e-05
  4.8231470e-04
  7.3655887e-04
  3.4868361e-05
  3.4480574e-04
  2.4126512e-04
  4.0407173e-04
  6.0754269e-04
  1.2163571e-06
  2.2871922e-04
  1.0384190e-04
  1.4738936e-04
  7.9993275e-05
  2.3783437e-06
 -4.2337892e-05
  2.9517752e-05
  5.2768533e-05
 -5.9808113e-02
 -2.4090845e-05
  4.5944171e-06
  2.0049654e-04
 -2.4274513e-04
  8.5554799e-05
 -1.4491507e-04
 -3.0159172e-01
  2.6221343e-05
 -2.2398423e-04
  1.8322055e-04
  1.7847131e-04
  3.6739762e-05
 -7.1764040e-01
  5.3310923e-05
  1.6083861e-04
  3.8219657e-04
  1.4960088e-04
  2.9337900e-05
  4.5484191e-04
 -1.0337701e+00
  4.5900662e-05
  9.1908240e-01
 -1.1990988e-05
  8.7294602e-01
 -1.4946819e-06
 -2.0507914e-05
 -5.6467575e-01
 -7.3789801e-05
  5.4613793e-01
 -1.0865701e+00
  4.2905679e-04
 -7.1466575e-06
  1.3233943e+00
 -1.4904918e-04
 -7.3519332e-05
  1.3045882e-01
 -1.3768959e+00
 -8.1146139e-01
  7.2536830e-05
 -9.0416659e-05
 -5.3442462e-04
  4.9262017e-04
 -7.6175094e-01
 -4.9676490e-03
  1.3512032e-05
 -1.4272571e-04
  4.1036656e-05
 -4.7636646e-01
  7.5262123e-01
 -1.1690863e+00
 -5.3926451e-05
  1.5201339e+00
  4.1095257e-01
  3.6438246e-04
 -1.0645460e-04
 -3.3467379e-04
 -6.7478497e-05
 -2.8000656e-04
 -7.0419846e-05
  1.8609771e-04
  1.8350394e-04
 -9.8795613e-07
  1.3243321e-04
 -5.9899579e-05
  2.0283971e-05
 -7.5033936e-04
 -7.4622812e-07
 -2.2540948e-05
 -3.2704923e-04
 -6.3307016e-06
 -3.7988307e-04
  6.0338265e-05
 -6.0776678e-05
 -9.0430309e-05
 -7.3530406e-05
  2.6156544e-04
  1.3232753e-06
  9.6894670e-05
  8.4736253e-05
  2.3135613e-04
 -4.0354196e-04
  2.6396485e-06
 -1.9844895e-04
  1.6856704e-04
  3.6743321e-04
 -1.9118603e-04
  5.5840588e-05
  1.2995793e+00
  2.9326920e-04
 -5.1790249e-04
  2.5699878e-04
 -3.9842511e-05
  7.4232252e-05
  5.2866762e-05
  2.7208557e-04
 -2.8954796e-04
  3.0781350e-05
 -2.5793490e-06
 -1.2152557e-06
 -1.0433572e-04
 -1.6167700e-06
 -1.5484226e-04
  1.2133790e-04
  9.0451409e-05
 -4.8866554e-05
 -4.5630720e-04
  7.0979404e-05
  1.6238121e-04
 -1.2155586e-04
  4.9283062e-05
 -1.2166424e-06
  2.0152936e-05
  7.0191978e-05
 -6.5345972e-05
  1.0265512e-04
  1.4883275e-04
  5.6567114e-06
  5.7499794e-05
  1.4154329e-04
 -2.3254109e-04
 -1.9371579e-04
  1.0392384e-05
 -1.4164684e-04
 -1.7610856e-04
  5.3933129e-04
 -2.0296313e-04
 -2.7818664e-04
 -6.5025459e-05
  1.0824257e-04
  6.3752806e-05
 -4.5011529e-06
 -7.7827205e-04
  2.1868828e-04
 -2.6622187e-05
 -2.8393895e-05
 -6.4480024e-05
 -4.1481291e-04
  1.8411870e-04
  1.4490933e-04
 -2.9130970e-04
  6.4444743e-05
 -3.4308676e-05
 -2.4714926e-04
 -3.8250891e-04
  2.1790124e-04
 -1.4309204e-04
  6.3608786e-05
 -2.1022953e-04
 -1.6475172e-04
 -4.4150060e-04
 -1.7863676e-04
 -5.2616035e-04
 -1.0159068e-05
 -2.5240077e-05
  2.6026135e-04
  2.6503653e-04
 -1.9576318e-04
  4.1189789e-05
  4.4579261e-05
 -1.1220628e-04
 -1.9222036e-05
  1.9986472e-05
  5.7178648e-04
 -1.6115580e-05
  1.8143664e-05
 -1.4832876e-04
  1.3733662e-05
  7.0127935e-05
 -8.5374304e-06
 -1.5132812e-04
  1.3092865e-04
  3.7748337e-05
 -3.6828843e-04
 -1.2015080e-04
  5.1927398e-04
  5.3804630e-05
 -1.8808452e-04
 -5.1326333e-05
  2.6472501e-04
 -1.1874217e-04
 -2.7619302e-05
 -1.4680393e-05
  1.2415761e-04
  4.5881810e-05
  1.0998525e-04
 -4.6766826e-04
 -4.7876350e-05
  3.1652405e-06
 -5.0877894e-05
 -9.2629541e-04
 -1.3917622e-04
 -2.4403826e-05
 -7.9919861e-05
 -3.9086671e-04
  9.9467463e-05
  2.3875009e-04
 -8.1482620e-05
 -2.2296833e-04
  3.1228806e-04
  3.6342506e-04
 -9.0766998e-06
 -5.1335399e-05
  9.9702367e-05
  1.2659779e-04
 -1.5325775e-05
 -2.0345525e-04
 -1.9060745e-04
 -2.3821802e-05
 -3.1042557e-05
  9.5005882e-05
  3.8408172e-05
  2.9038201e-04
  2.7144581e-04
  2.1929707e-04
  2.3431619e-05
  1.0205786e-04
 -8.3575178e-05
  1.0939172e-04
 -3.6543846e-05
  8.6257503e-05
  1.1231893e-04
 -7.7732540e-05
 -2.7226421e-04
  3.3017088e-04
 -5.3378608e-05
  4.6922432e-05
  4.0306515e-04
  2.6485225e-04
 -1.3191448e-05
  2.1781861e-04
  4.3049952e-04
 -1.2346805e-04
  3.7655642e-04
  2.8755436e-05
  6.8569738e-05
  5.1547559e-05
 -8.9978566e-05
 -2.6250168e-04
 -9.2255417e-04
 -2.7886648e-05
 -9.8368611e-05
  5.0366222e-04
 -2.9762166e-06
  1.6128428e-04
  5.7307934e-05
 -7.6770106e-05
 -1.6982353e-04
 -2.7677687e-04
 -1.7256550e-04
  1.3911442e-04
 -1.2719537e-04
  3.2211825e-05
 -1.0258624e-04
 -5.2785366e-05
  8.3415420e-05
 -4.0775034e-04
  2.4237164e-04
  2.3606110e-04
  1.2893626e-04
  3.2540178e-04
 -4.6682935e-06
 -1.1230428e-04
 -3.7315986e-06
  6.9260772e-05
  1.0773294e-04
  8.0359826e-04
 -5.6787576e-06
  2.6507551e-04
  3.2631372e-04
  9.1378988e-06
 -6.6574739e-04
  3.1327235e-04
 -6.0799513e-05
 -1.9506666e-04
 -4.9667582e-05
  8.6572421e-05
  6.9060006e-05
  6.4393244e-05
 -3.7301976e-05
  1.6515268e-04
  5.5181858e-06
  1.8778062e-04
 -3.8790680e-05
 -7.8645258e-05
  7.2660718e-05
  9.1202855e-05
 -1.8581255e-05
 -9.8447288e-07
 -2.9432934e-04
  2.2509100e-04
 -1.4177932e-04
 -5.2822114e-04
 -2.7877542e-05
  1.0697086e-05
 -2.5495663e-04
 -4.0654468e-05
 -1.5278622e-04
 -1.7014834e-01
  1.2030212e-04
 -8.8753084e-05
 -2.1155352e-04
 -2.8390847e-05
 -1.1373493e-05
  1.8943270e-05
  5.6420078e-05
  2.2824875e-05
 -4.2842137e-05
 -6.1494451e-05
 -2.6760696e-04
 -3.7697275e-05
 -2.6656839e-04
 -1.5322081e-04
 -1.7954691e-04
 -5.5369921e-05
  2.4890242e-06
  1.2406251e-04
  6.7100546e-04
 -2.0251783e-04
 -1.8399009e-04
 -1.9137208e-04
  8.3381179e-05
 -8.2907052e-04
 -5.3067342e-05
 -5.3249158e-05
  1.9332061e-04
  8.4336185e-05
 -1.2268453e-04
  1.0170320e-04
  1.7847099e-04
 -2.9220311e-05
  4.9654575e-04
 -6.4087450e-05
  1.2973366e-04
  2.8942488e-04
 -5.9528775e-05
 -1.9226797e-04
  2.8458753e-04
  2.9712036e-04
 -1.8899831e-04
 -8.2435879e-05
  1.3470907e-04
 -3.1869501e-04
 -2.8258646e-04
  7.7638768e-05
 -2.4396223e-04
  1.7745684e-04
 -4.3484961e-05
  1.2682690e-04
 -5.8825924e-05
 -9.7240743e-05
  1.3672431e-04
  1.6354214e-04
  4.1541593e-05
 -2.6409444e-04
  2.1757396e-05
  1.1774502e-04
  2.0721226e-04
 -6.5961003e-02
 -3.0077371e-04
 -5.5314208e-06
  1.2387840e-04
 -3.8754684e-04
  1.0541270e-04
 -1.4034176e-04
  2.0399744e-05
  6.8857094e-05
 -9.0763431e-05
  1.3225299e-05
  1.1654583e-04
  8.8030916e-05
  1.3323710e-05
 -1.0166223e-04
  1.0803042e-03
 -4.8333306e-05
  1.8481146e-04
 -9.8274486e-06
  4.0839863e-04
 -5.5247572e-05
 -8.1785023e-05
 -5.4755783e-05
 -6.0985385e-05
 -1.2573101e-04
 -3.7677713e-05
 -1.3546216e-05
 -1.2948403e-04
 -6.2643208e-05
 -2.5125351e-05
 -5.5713557e-05
  1.7208098e-04
 -3.9560298e-05
  1.1601826e-04
 -1.6148679e-04
 -8.3067798e-06
 -5.4447497e-05
  6.0959937e-05
 -1.3441459e-04
  3.6200709e-04
 -9.8719749e-05
  1.4186522e-04
 -4.2328372e-04
 -2.9240220e-04
 -4.2042258e-05
 -4.1657782e-04
  3.2994605e-05
  8.4389794e-06
  2.1428072e-04
 -5.2345498e-05
 -9.4615585e-05
  3.0104315e-04
  1.6590708e-04
  4.5159244e-04
 -1.7281104e-06
 -3.4159186e-04
 -3.0159237e-05
 -2.1462499e-04
  1.1151649e-04
 -5.5283603e-05
 -1.7010288e-04
  1.8551442e-04
 -1.2915379e-04
  1.2518765e-04
 -1.4973020e-04
 -1.3601054e-04
 -1.5633570e-05
  6.5277942e-05
  1.7760030e-04
  2.1361632e-04
 -1.0114809e-04
  1.3435216e-04
 -1.6869155e-04
 -1.3066344e-04
  3.8117185e-04
  6.4479500e-05
 -4.6604429e-05
  5.5561377e-05
 -1.1620788e-04
 -2.3360644e-05
  2.0396797e-06
 -2.9689929e-04
  2.2962799e-04
  2.0001292e-04
  2.6217322e-05
 -1.5195522e-04
 -4.4998797e-05
  1.9573698e-04
  2.3099077e-04
 -3.5178379e-04
  1.0184874e-04
 -1.0600455e-04
  1.3542095e-04
 -1.7342753e-04
 -8.7527269e-06
  1.4063975e-04
  4.7710633e-05
  6.9756548e-05
 -1.3134167e-04
 -1.0361998e-04
 -7.1938476e-04
  9.2555136e-05
 -3.5730001e-04
 -2.1898653e-04
  1.0613912e-04
 -2.0943019e-04
 -2.1637711e-06
  3.2341493e-05
 -1.4937160e-04
 -1.3213608e-04
 -6.3869069e-05
  1.3561906e-04
 -1.8265333e-04
 -1.4569953e-05
  2.5169813e-04
 -4.5844332e-05
 -5.0641644e-05
  3.5452604e-04
  8.2922619e-05
 -7.1938301e-04
  3.3431968e-06
 -4.9698879e-06
 -4.3160270e-04
  1.6429012e-04
  2.8653766e-04
  2.1082656e-04
 -1.2048606e-05
  2.2384613e-04
  5.7366698e-05
  3.2941959e-06
  1.9012742e-04
  7.1384762e-05
 -1.7994529e-04
  3.5191549e-04
  2.6846286e-05
  1.3135867e-04
  1.0570080e-04
  3.1509850e-04
  1.8604046e-04
  2.6473097e-04
 -7.9802972e-05
  2.0858517e-05
  1.8759316e-05
 -4.3080337e-05
 -1.6906814e-04
 -6.4977998e-05
 -2.7945542e-05
  1.5055173e-04
 -7.4422416e-05
  3.5838006e-05
  1.3200766e-05
 -4.4478442e-05
 -3.3192339e-04
 -2.1211544e-04
 -9.4656170e-05
  9.7885189e-05
  1.8411505e-04
  1.5572950e-04
  2.9479123e-05
  1.4506979e-04
 -3.7748687e-04
 -1.0864563e-04
  1.6294032e-06
 -2.2930055e-04
 -1.7818448e-04
 -6.3562155e-05
  3.8875369e-05
 -2.5819227e-04
  1.1318723e-04
 -3.5140777e-04
  1.4071337e-04
 -7.3027870e-05
  1.5391894e-05
 -4.5769688e-05
 -2.0612152e-04
  1.4717598e-04
  1.8785331e-04
  2.4054559e-04
  3.0704738e-05
 -4.4938603e-05
  3.6513025e-04
 -1.2429943e-04
  7.7086610e-05
  1.5387429e-04
  3.7877358e-05
 -3.4066581e-04
  1.2168369e-04
  3.1192382e-04
 -1.0442798e-04
  2.6148054e-04
 -1.1038486e-04
  1.7294187e-04
  2.6304569e-04
  6.2858337e-05
  2.2440350e-04
  6.4435088e-05
  5.7463552e-05
 -1.3231763e-04
  2.7781414e-04
 -7.1293826e-04
  4.7876911e-05
  1.3674893e-04
  3.0968244e-05
  1.7696111e-04
  1.2771446e-04
 -7.6120174e-05
  2.6192778e-04
 -9.7442578e-05
  1.5037117e-04
  6.1959909e-05
  1.9732995e-04
 -1.4931867e-04
  1.4177198e-04
 -1.3514402e-04
 -1.2191246e-04
  2.1393384e-05
 -1.1057426e-04
 -7.9253259e-05
 -7.9899284e-05
 -4.5463370e-05
  5.0937914e-04
  2.2652333e-05
  1.9288868e-04
 -1.3001320e-04
  3.6951037e-06
 -5.2893960e-05
  9.0051608e-06
  5.7319177e-08
  3.0702603e-04
 -7.6147786e-05
  2.9098234e-04
 -1.9078721e-05
 -1.7224468e-04
 -5.4542121e-05
 -1.3034439e-04
 -5.5333094e-06
 -3.4692368e-04
  3.4464902e-04
 -2.5696456e-05
 -5.9438185e-05
 -1.4355943e-04
 -8.6851960e-06
 -1.6173405e-04
  4.1865951e-05
  1.9808889e-04
  1.1915582e-06
  5.3336174e-04
 -2.8225759e-04
 -1.7495913e-05
  4.2074582e-05
  1.7539461e-04
  7.3125731e-04
 -4.4995721e-04
  6.0769285e-06
 -3.0412015e-05
  3.1390411e-04
 -2.6909196e-05
 -6.3772764e-05
 -3.1825821e-04
  3.2861502e-04
 -1.1712033e-05
 -1.5341940e-04
 -9.3093018e-05
  3.8443631e-04
 -5.9806816e-06
 -1.4040656e-04
 -1.6258928e-04
 -4.6503136e-04
  5.4965007e-05
 -2.3500233e-04
  4.7251719e-06
 -5.9066570e-05
 -2.2033704e-04
 -7.5603442e-05
 -2.7738296e-04
 -9.7358192e-05
  1.1928225e-04
 -6.2815554e-04
 -5.4148790e-05
 -1.4746946e-05
  1.2440507e-05
 -4.1773314e-05
 -2.0480678e-04
  2.4899445e-04
  2.1454328e-04
  3.2779860e-04
 -8.8673896e-06
 -3.4437093e-05
  3.2584788e-04
 -7.3834852e-04
  2.7159308e-04
  1.4534821e-03
  1.1688376e-04
 -7.1630035e-05
 -3.6584705e-05
 -1.3333080e-04
 -3.6526195e-04
 -1.5583343e-04
 -2.2203548e-04
  2.3268200e-04
  4.7705907e-05
  1.0934296e-04
 -2.0489244e-05
 -2.9645127e-04
 -4.6665035e-04
  5.3145075e-05
  7.3473034e-06
 -3.8250662e-05
  1.6025531e-04
  4.5881487e-05
  2.4301182e-04
  3.8665319e-05
 -1.9222123e-04
 -8.0584592e-05
  9.7619879e-05
  4.9821359e-05
  2.3146655e-05
  8.2957631e-05
  3.1265969e-05
  9.1101982e-05
  2.1425135e-04
  1.6236867e-04
  6.0240965e-04
 -9.6965938e-05
 -1.2679197e-04
 -2.1377431e-04
 -1.2464068e-04
 -1.0813891e-04
  3.3336342e-05
  2.1289907e-05
  5.5086234e-06
  1.9616121e-04
  2.6704979e-04
  3.1960697e-04
 -5.9792341e-04
  5.4278036e-05
  8.4957741e-05
  3.7188566e-04
  5.8314195e-05
  8.4099784e-06
 -3.6831374e-05
  3.5040616e-04
 -7.1125440e-05
 -2.0824140e-04
  3.8677856e-04
  2.3759918e-04
  2.2857976e-06
 -2.0205487e-04
 -7.1812006e-05
  3.8285623e-05
 -6.5762892e-05
  1.7796209e-04
 -4.7963700e-04
 -3.1855027e-04
  6.6672212e-05
 -7.7247678e-05
 -5.2872307e-05
 -3.1574824e-04
 -1.7577264e-04
 -1.0842474e-04
  5.2651465e-02
 -7.0893992e-05
  3.6718443e-04
  6.4535079e-06
 -1.3848805e-04
 -3.8854108e-04
 -6.8366811e-05
 -2.5935192e-04
 -1.5867292e-04
  4.7384857e-04
  2.2488125e-04
 -8.8465116e-05
  8.9527661e-04
 -1.8010310e-04
  9.0327252e-05
  1.1367360e-05
  3.0835039e-05
  6.9382048e-05
  2.1648804e-04
  4.5535773e-05
  1.0501450e-04
 -1.3339998e-04
  6.5347413e-05
 -7.2712828e-05
 -1.8855259e-04
 -1.6667267e-04
  3.1772681e-05
 -7.3413357e-05
  5.9295569e-05
 -1.4988007e-04
  1.7042532e-04
  1.5437684e-04
  3.4426892e-04
  1.2151690e-05
 -1.3950127e-04
  2.8330158e-05
 -4.1647709e-05
  3.3059594e-05
 -3.1690262e-04
 -9.9578465e-05
  3.9167685e-04
  2.9334283e-04
  5.8362755e-04
 -5.4629814e-05
 -2.7229189e-04
 -8.8675144e-05
  4.1567873e-05
  2.9535395e-05
 -1.7708662e-04
  3.9727678e-05
 -3.0315950e-05
 -1.7348415e-05
  3.9785355e-05
  1.1313037e-04
 -1.4884184e-05
 -1.2807674e-05
 -2.3262769e-04
  5.8595542e-05
 -9.2602786e-06
  4.6259076e-05
  9.7164839e-06
 -9.3939871e-04
 -4.0551884e-05
 -5.1383796e-04
 -6.7918038e-05
  5.1830124e-05
 -1.9201163e-05
 -2.8112295e-04
  1.0077667e-04
 -3.7224156e-05
  1.8385167e-06
 -2.3292177e-04
  1.1169241e-03
 -7.2232244e-04
  2.4261078e-04
 -2.2503936e-04
 -9.8826364e-05
 -1.7078941e-04
 -1.4732970e-04
  4.2445195e-04
  1.5755842e-04
 -1.0395608e-04
 -1.0116660e-04
  3.0782961e-05
  3.8195154e-05
  1.4161333e-04
 -1.4871375e-04
  7.8770559e-04
  4.0844232e-05
  1.0137393e-05
 -8.0770864e-05
  8.5386664e-06
  2.9333463e-05
  1.8464317e-04
  7.5349584e-05
 -1.7753744e-05
 -3.5355191e-05
  2.1598602e-04
 -3.2188115e-04
 -2.3403216e-05
 -2.6453057e-05
 -2.5588295e-05
 -2.7337141e-04
  1.3136750e-04
  9.6828080e-05
  6.0515403e-04
  2.6360025e-05
  3.2547738e-05
 -2.1513402e-04
  8.7191162e-05
  2.5058351e-04
  1.4861279e-04
  1.7628874e-04
  4.7345853e-05
 -1.2146574e-04
 -3.8646576e-05
  5.2308984e-05
  1.4667488e-04
 -2.4432468e-04
  5.6425540e-04
  1.2378803e-07
  1.2956779e-04
  1.8458163e-04
  4.7821520e-04
 -3.2417374e-04
  3.8677434e-04
  3.4858112e-05
  1.5292221e-04
  1.3800490e-05
 -2.4142526e-05
 -1.1498675e-04
 -3.1260913e-04
  4.3946613e-05
 -1.4059358e-04
  7.8183941e-05
 -4.6647074e-06
  3.2172544e-04
 -2.7749295e-05
 -3.3819795e-04
  2.0037340e-04
  5.0861720e-05
  2.3578365e-04
 -2.5002993e-04
 -1.7238523e-04
  2.9631113e-04
  8.6905384e-05
 -1.3147585e-05
  4.4846056e-05
 -1.6350577e-04
 -1.2077134e-04
  6.1020082e-01
 -3.0224913e-04
  5.6263783e-05
 -1.4747262e-04
 -4.3350356e-04
  1.7692802e-04
  4.8388244e-04
 -3.7691818e-05
 -2.6971239e-04
  5.8539244e-05
 -8.1590651e-06
  1.1507217e-05
  6.4259605e-04
 -7.1154980e-05
 -8.6628199e-05
  5.7017931e-04
 -6.2045408e-05
  6.1021012e-05
 -2.7545404e-05
  2.2048618e-04
  1.2350587e-04
 -8.9960929e-05
 -7.1624803e-05
 -1.7491105e-04
  5.4201775e-04
 -1.5002253e-04
 -4.9443761e-06
  3.1626823e-05
  6.0852553e-04
 -8.9676195e-04
 -1.3566745e-04
  2.8466096e-05
 -4.8553269e-05
  4.9579469e-04
  3.8858302e-04
  3.4172912e-04
 -5.9306610e-04
 -1.4000153e-04
 -3.1523166e-05
  1.4422342e-04
 -2.3204935e-04
 -1.2795231e-04
 -3.2101403e-04
  7.2924660e-05
  1.2939669e-04
 -1.1055783e-04
  6.8896945e-04
 -5.2881816e-05
  9.5087089e-05
  1.3505470e-04
  1.9551082e-05
 -1.1725038e-04
 -6.6810571e-05
 -2.8912877e-04
  3.2272656e-05
  1.4427453e-04
 -2.8923940e-04
  1.9475442e-04
  1.2088102e-04
 -5.4713681e-05
 -1.6806094e-04
  2.8614309e-05
  1.8657224e-04
 -4.4006549e-05
  3.0350089e-05
 -8.0441474e-05
  1.0218744e-04
 -1.6402030e-04
 -1.7380639e-04
 -1.0846682e-04
  3.6311681e-05
  4.0541138e-04
  9.9657416e-05
  1.4492175e-04
 -8.8826846e-04
 -4.4502322e-05
 -4.7015044e-05
 -3.1558237e-05
 -2.1895480e-04
 -1.3043817e-04
 -1.3844606e-05
  1.4700548e-05
 -1.3957673e-04
 -4.6029294e-05
 -2.5510587e-04
  4.1220005e-04
 -3.2542361e-05
  1.0101823e-01
  3.7205144e-05
 -1.2667372e-04
  3.7552530e-04
  6.0742906e-05
 -6.0134389e-05
  3.5022691e-05
 -9.4069201e-06
  3.5704413e-04
  5.7715588e-06
 -6.0057500e-05
 -2.7518606e-04
 -1.3274087e-04
  1.2199925e-05
  8.2759936e-05
 -5.8349422e-05
 -2.3807055e-05
 -7.5784774e-05
  6.4054417e-04
  7.8140283e-06
  5.4816202e-05
 -2.2600248e-06
 -4.2511456e-05
  7.3543611e-06
  7.0596667e-05
 -1.1178852e-04
  2.4135073e-04
 -3.1980380e-04
 -2.5345182e-05
  1.1311135e-07
 -1.1189399e+00
 -1.3343958e-05
 -5.7806226e-04
  1.4365607e-04
 -9.4425668e-05
  9.7249344e-05
 -1.4956070e-04
  2.3850626e-01
  7.1022623e-05
  6.1981557e-03
  1.7991275e-05
  1.0718494e-04
  6.0619168e-05
 -4.0374416e-05
  3.8425415e-04
 -7.3332209e-05
  1.5797505e-05
  1.3818083e-04
 -5.2741005e-05
  6.9332607e-05
  2.2712304e-05
 -4.8853544e-04
 -1.4875484e-04
  2.8399719e-04
  6.1609389e-05
 -2.6279866e-05
 -3.8919887e-01
  2.2398763e-04
  2.2225860e-05
 -4.1700612e-05
 -1.6587401e-06
 -2.5635827e-05
  1.2748306e-04
 -1.4743848e-05
 -4.4317982e-05
 -1.5220638e-05
  7.9859958e-05
  9.4593634e-05
  2.4318257e-04
 -9.2143200e-05
  6.3101135e-05
  2.1662695e-06
  1.1250679e-05
  1.4914827e-04
  5.6299639e-05
  1.4625928e-04
 -1.0786331e-04
  1.1805519e-04
 -3.1404113e-04
  5.5177661e-04
  4.9465111e-01
 -1.3404569e-04
 -7.2597191e-05
  2.9426074e-04
 -2.9014798e-05
  1.3674956e-04
  2.9055738e-05
 -7.1642280e-05
  6.4103813e-05
  5.4645044e-04
  1.9072426e-03
 -5.2456385e-01
  1.6407874e-01
 -1.6129923e-04
 -1.0805453e-01
 -2.9438254e-03
 -1.7859044e-05
 -2.9963583e-05
  1.7601688e-04
  1.5174568e-01
 -2.3827066e-01
  2.2390710e-04
 -3.6428519e-05
 -2.5839117e-04
 -2.8085414e-01
 -4.0992844e-01
 -2.2744370e-01
 -9.0641126e-02
  1.0913698e-04
 -3.1229280e-02
 -9.6087337e-02
  9.5777446e-05
 -1.3467366e-01
 -1.0887015e-04
 -4.7574313e-03
 -4.2331638e-04
  9.6853553e-05
 -1.8966891e-04
 -1.5382367e-04
  2.0745842e-01
 -1.4165771e+00
 -2.7919576e-01
 -2.7593592e-01
  2.5106528e-01
  3.5747531e-01
 -5.0778937e-01
 -2.0524942e-05
  1.4430678e-01
  3.1823038e-05
 -7.6311379e-04
  4.9387595e-01
  9.1789254e-05
  2.4742161e-01
  3.6953839e-05
  9.1124675e-04
 -1.7058814e-01
  5.7321286e-05
  2.5704408e-01
  1.2274257e-04
 -4.2183670e-05
 -3.2797184e-06
 -3.9760609e-05
  1.0572460e-01
 -2.7258848e-05
  5.3508877e-04
  8.8210159e-05
 -9.2941336e-05
 -6.9308035e-06
 -1.8558119e-07
 -1.0096001e-04
  4.8260255e-05
 -4.6804009e-05
  5.0719231e-02
  1.0445144e-04
 -3.2024953e-05
 -7.7359756e-03
 -1.8977960e-05
  7.9094124e-04
  1.2409624e-04
 -1.7015918e-05
  1.3508697e-04
 -2.6410089e-05
 -2.7777663e-05
  3.4472312e-05
  5.8517788e-05
  7.5346303e-05
 -8.5819083e-05
 -6.3542684e-05
 -1.0924099e-04
  9.0818357e-05
 -1.3758235e-04
  1.0214657e-04
  2.9518847e-05
  2.0318877e-04
 -4.1748281e-05
 -1.5306612e-04
  4.5763041e-05
  8.6604996e-04
  2.5108122e-04
  3.8124363e-05
  6.0785937e-05
 -2.3512394e-04
  1.6981868e-04
 -1.1001014e-04
 -1.2748198e-04
  3.4415840e-05
  3.5293357e-05
 -1.7400247e-04
 -2.3577365e-04
  3.9634073e-05
  2.2941992e-04
  7.7003524e-06
 -9.2185313e-05
 -3.2797303e-05
  1.5932112e-05
  9.8795441e-05
 -3.4646159e-06
  7.0973806e-06
  1.2078056e-04
  5.5249908e-05
 -3.1618463e-04
 -7.7140226e-05
 -5.9979411e-06
 -1.0609868e-04
 -3.5529144e-04
  1.1205014e-04
  1.4446351e-04
  1.0240568e-04
 -7.8481091e-05
 -9.8062144e-04
  3.4396778e-04
 -4.0309983e-06
  2.4031843e-01
  5.9456986e-05
  3.5511963e-05
 -3.6516380e-03
 -2.4130761e-04
 -4.5169487e-05
 -4.2543834e-04
  1.5061817e-04
 -2.9845128e-04
 -3.9085582e-05
 -6.0912466e-04
 -1.0596495e-04
 -6.1357510e-05
 -2.4523869e-01
  2.8447632e-05
 -1.1634898e-04
  1.3076099e-04
 -7.9920865e-05
 -3.9782724e-05
  1.1351128e-04
  6.5513290e-05
  1.2348304e-04
 -1.4500735e-04
 -3.1818519e-05
 -3.2156349e-05
 -2.9974207e-04
  6.0161656e-05
 -3.6985439e-05
  3.4639874e-05
  5.2542935e-05
 -3.4323813e-05
 -1.9827604e-04
 -9.5139978e-05
 -7.7966986e-05
  1.6727588e-05
 -8.8036162e-05
  5.0075620e-04
  4.9941562e-05
 -8.8289424e-05
 -1.1805986e-04
  1.0391796e-04
 -1.8238382e-04
 -1.5610483e-07
 -7.1237431e-05
  4.4283886e-05
  2.0636759e-04
 -6.0351504e-06
  6.9659000e-05
 -2.5813570e-05
 -1.3834705e-04
  3.9699273e-05
  9.4876508e-05
 -5.4976899e-05
  2.7496646e-05
  2.5206489e-05
  1.4460945e-04
  1.3274817e-05
 -2.7681817e-05
 -5.7965977e-04
  1.9080839e-05
  7.8628538e-05
  1.3872651e-04
  3.3535965e-05
 -3.1003758e-04
 -1.5469191e-04
  4.3015836e-05
 -7.1926821e-05
 -4.2776395e-05
  1.1202481e-04
 -2.9235790e-04
 -8.3960447e-05
  6.3981679e-05
  8.4393680e-05
 -3.5986357e-04
  7.4294578e-05
 -1.2984905e-04
  5.7665817e-05
 -9.8824297e-05
  1.0522758e-04
  1.4959231e-03
 -1.4555645e-05
 -1.7523776e-05
  2.1350724e-04
 -8.6943124e-05
 -2.7807955e-05
  8.0121841e-05
 -2.4382623e-05
 -4.6555389e-05
 -8.7858543e-02
 -1.1883359e-01
 -2.6874980e-01
 -3.5100026e-04
  4.7360316e-02
  1.8557519e-01
 -3.7630484e-04
  3.1392257e-05
  4.4248522e-05
 -1.7543599e-03
  3.4272182e-01
  2.0282360e-04
  9.3256225e-05
 -9.9731064e-05
 -3.5496450e-05
 -1.6708112e-01
  3.4076031e-04
  1.2204848e-01
  5.5744302e-05
  9.8535602e-05
  1.6910979e-04
  6.7128916e-05
  3.9010582e-04
  1.0262644e-04
  1.3512670e-03
  3.3715100e-05
 -3.5085162e-05
 -2.9872125e-04
 -1.5145665e-04
 -1.1118224e-05
  9.5974188e-05
 -5.2214805e-06
  1.8825245e-04
 -9.9791243e-05
 -4.3887543e-05
  1.0219326e-04
 -3.5870620e-05
 -3.7938116e-05
 -4.9916143e-05
  1.8587775e-04
 -3.5537110e-04
 -7.1157323e-05
  1.3020336e-05
  2.3766284e-04
  4.3642384e-04
  3.4545397e-04
 -4.3397205e-05
  4.4073506e-05
  2.4400790e-05
 -4.4925691e-05
 -1.7846703e-04
  5.1842898e-04
  2.8131748e-04
  2.8633607e-07
  2.2135397e-05
 -1.4213136e-04
  1.1179569e-04
  2.8829427e-05
  1.9139214e-05
  1.8997928e-04
  1.9527074e-04
  1.8207851e-01
  1.4345773e-01
 -4.1522904e-05
 -1.9328455e-04
 -3.8961925e-02
 -3.1178221e-04
  7.3833631e-05
  8.6470864e-05
  3.6258294e-04
 -9.3786206e-05
 -5.1389593e-06
 -1.7810520e-03
 -5.4627428e-05
 -2.7622687e-04
  2.8897189e-06
 -1.5048528e-05
 -6.1355543e-04
 -3.4724866e-04
  1.4903765e-04
  5.2621515e-05
 -1.2451474e-04
 -2.7536890e-03
 -2.7818729e-05
 -9.2854440e-05
  3.4085897e-05
 -6.2574007e-05
 -2.2809927e-05
 -9.8886987e-05
 -2.9974636e-01
  1.8754171e-02
  1.0766767e+00
  3.3825349e-02
 -9.5775882e-05
 -7.8287376e-05
  5.3455079e-01
  1.6474565e-03
  6.1821913e-05
 -3.5131405e-05
 -7.2900689e-04
 -2.3391630e-01
 -7.8480169e-02
  4.5540772e-05
  1.7416826e-04
  1.0175269e-04
  1.3927438e-02
 -1.2938428e-04
 -2.5633160e-05
 -8.3251893e-05
  4.3661645e-04
  8.6135827e-02
  3.9601722e-04
  5.5520046e-05
 -1.4672773e-04
 -4.1086558e-04
 -1.3896206e-04
  2.3602290e-05
  1.0148736e-04
  4.6767564e-05
  1.0738507e-04
 -5.4132626e-05
 -6.6894267e-05
 -1.0578730e-04
  2.4038261e-05
 -3.7066144e-05
 -3.6111829e-04
 -3.4035518e-04
  2.9304044e-04
  7.5451203e-04
  1.0485727e-04
  1.2727296e-04
  6.1239232e-05
  3.1140484e-04
 -2.4641494e-04
  1.3263176e-04
 -2.4397568e-05
  7.7533048e-05
  5.7397515e-04
  7.4442374e-05
 -7.4441152e-05
  1.0684102e-04
  2.5068232e-04
  4.9553222e-05
 -8.1258899e-05
  6.4611777e-06
  2.0885287e-05
 -1.9416062e-04
 -1.7899062e-04
 -1.6989800e-07
  1.1575765e-05
  1.0046497e-04
 -3.1110542e-04
 -2.0605545e-05
  4.0635798e-04
 -6.8528752e-05
  1.2236740e-05
 -5.2299019e-05
  1.6801931e-05
 -2.6109911e-04
 -3.2588906e-04
  1.1227928e-03
 -4.0151594e-05
 -3.9736762e-05
  1.5808230e-04
 -3.1363370e-04
 -1.6514008e-05
  1.5642150e-05
 -1.0071741e-04
 -5.5463479e-05
  1.1154864e-04
 -5.1851624e-05
  4.1200776e-05
  8.8136578e-05
 -4.5504523e-05
  1.3950275e-04
  7.9991347e-05
 -2.5280449e-04
 -1.5057037e-05
  2.2473260e-04
 -2.4454810e-01
  6.8632349e-02
  1.3457398e+00
  4.8530991e-03
  6.4743511e-02
  4.6899708e-04
  5.1346594e-01
  3.0435038e-01
  3.9170418e-04
 -7.0244416e-05
 -2.2684020e-01
 -1.8314105e-01
 -2.9275334e-01
 -4.1829533e-04
 -1.1045454e-05
  1.4651972e-02
  5.2481151e-01
  8.0385841e-02
  1.4513607e-04
 -6.2226361e-05
  2.5787848e-01
  2.3921587e-01
  7.3216870e-02
 -3.5782807e-05
 -2.4935187e-05
 -2.4882695e-03
 -1.9465366e-03
 -1.2184116e-04
  9.5103467e-05
 -3.9984963e-05
 -1.5045387e-03
 -1.6294999e-04
  1.3753055e+00
 -2.3642135e-01
 -9.5490228e-05
 -2.1285581e-04
 -7.6662606e-01
  2.8658278e-05
 -1.6116021e-02
  2.8815103e-04
  1.9250115e-02
  1.0706468e-01
  7.8340679e-02
  7.0032911e-05
 -5.6459237e-05
 -1.6549875e-01
 -4.9011630e-01
 -8.3548032e-02
 -1.8116531e-04
  3.0456498e-04
  1.8710218e-02
  6.0294025e-02
 -3.7736820e-05
  8.2049053e-05
 -2.4068229e-05
  4.3774460e-04
  1.3844181e-04
 -4.1416155e-05
 -6.5276829e-05
 -1.8400395e-04
  1.2560494e-04
  2.3996625e-04
  7.6277953e-05
  1.7466980e-04
 -9.1408969e-05
  9.1480142e-05
  3.6604254e-04
 -1.0687391e-04
 -9.3222407e-05
  1.9763620e-04
  3.6222624e-05
  3.0924071e-04
  6.2623432e-05
 -5.1203688e-06
 -1.5149335e-04
 -1.3076265e-04
 -1.3975598e-06
  3.8631184e-05
  9.5962831e-05
  8.5469008e-05
 -6.7425517e-06
 -2.3687567e-04
 -1.8657334e-05
 -1.1424720e-04
 -4.4661935e-04
 -3.1718417e-04
  8.8276909e-05
 -1.3463006e-05
 -8.0220452e-05
  5.4706492e-05
  4.0733303e-05
  7.6017648e-02
  4.8768654e-01
  5.1121724e-01
 -1.6236638e-04
 -1.1561289e-01
 -6.0638845e-01
 -2.4609215e-04
 -9.3791765e-05
 -3.0335505e-05
 -5.5139230e-06
 -2.3027416e-01
 -8.0553880e-05
 -3.9141576e-04
  5.9561709e-05
 -4.0077437e-03
 -2.0750463e-01
 -6.6729967e-04
 -1.3677821e-03
 -1.3668343e-04
 -3.3954344e-05
 -3.1329673e-05
  6.8523099e-05
  9.2100154e-06
 -1.0871630e-04
 -1.3177113e-04
 -1.3909221e-04
  3.0445863e-05
  4.4881826e-04
  2.1126225e-05
  1.3638701e-04
  1.2590317e-04
 -2.7000844e-01
 -7.7055302e-05
 -4.0227082e-05
  1.5728165e-04
 -5.3686403e-05
  9.4591727e-05
 -1.3041166e-04
  1.4426900e-04
 -4.4559925e-05
  6.4013409e-05
  8.7962668e-05
 -2.3591577e-04
 -1.7046927e-04
 -5.7015961e-05
 -3.2682514e-05
 -1.3737021e-04
  1.6172518e-05
  1.2740973e-04
  5.3488518e-05
 -1.3761855e-04
  7.0213719e-05
 -2.5384656e-05
 -2.3275230e-05
 -9.9063058e-05
  2.1605860e-05
  6.5192879e-05
  2.1185275e-05
 -1.5575597e-04
  2.2151394e-06
  5.0034418e-05
  1.6677595e-04
  2.0926826e-04
  5.0200225e-04
  3.4940629e-06
 -5.6441175e-05
  7.8937563e-05
  4.1617328e-05
 -1.2006049e-05
 -4.1169696e-04
  1.0953478e-04
  1.1803830e-04
 -1.1757189e-04
 -7.4816999e-05
  3.5926612e-05
  2.9491197e-04
  7.0138514e-05
 -7.7337696e-05
 -2.6393775e-06
 -2.9535224e-05
 -1.1515873e-04
 -1.2468534e-04
  3.1900046e-05
 -2.0117117e-05
  1.5706784e-04
  9.1855021e-05
 -3.6523206e-04
 -1.1437265e-04
  3.2697983e-05
 -1.3119677e+00
 -2.5948400e+00
  4.3344679e-01
  1.5984405e+00
  1.2628394e+00
 -2.5194788e-01
  1.5066051e-01
  1.7453656e-01
  1.0099415e-02
 -1.5700565e-04
  3.3682305e-02
 -9.1514870e-05
 -3.5958341e-01
 -2.1419059e-01
  1.8841564e-04
 -3.6140233e-01
  6.7615432e-01
  2.5526217e-01
 -1.7572421e-01
 -8.0903214e-05
  1.7609565e-01
  5.8072805e-01
  1.7266065e-01
  7.2194845e-05
  6.5902153e-05
 -3.1346449e-01
 -1.1779368e-01
  1.4525664e-04
  7.1774150e-04
  1.5535609e-04
 -1.5103699e-04
  3.6738867e-05
  4.6053113e-04
 -1.5854317e-04
  2.5556583e-05
  4.9167182e-05
 -7.3198607e-05
 -2.6638855e-04
  3.0499777e-06
 -1.8534802e-05
  8.2838605e-04
 -1.7985685e-05
 -2.3493356e-05
 -7.4634001e-05
  2.2475682e-05
  2.8829242e-04
  2.1457298e-04
 -2.8625882e-04
 -5.8998750e-05
  3.7514020e-04
  2.0213131e-04
 -6.5070075e-05
  2.7347822e-05
 -2.4096998e-05
 -7.2602779e-06
 -6.2724866e-05
  2.9338690e-04
  2.3705064e-05
  7.3971343e-05
 -1.6285048e-05
 -5.1785666e-01
 -1.2925826e+00
 -6.0949290e-01
 -1.5173301e-01
  9.0183184e-02
  4.1700092e-01
  4.8068311e-02
 -3.8066599e-01
  7.5724262e-01
  2.8110710e-05
 -2.9797497e-01
  5.3314561e-01
 -4.1302637e-04
  1.2151412e+00
 -1.1135829e-05
  5.9713596e-01
 -2.4805648e-02
 -3.7041667e-01
  9.3146700e-01
  1.0560324e-04
  4.8333194e-02
  6.2333000e-01
  4.7482949e-02
  7.9584223e-01
 -2.5816640e-04
  2.1661139e-01
 -2.3958513e-04
 -8.9014778e-05
 -2.5624111e-01
  1.1963430e-04
 -5.6332935e-02
 -1.7685515e+00
  2.3712285e-01
 -2.7932546e-01
  6.4517444e-01
  1.0939782e-01
  1.1133555e-01
  9.8084420e-05
  4.9826333e-01
 -5.6606114e-05
 -4.1861489e-01
  4.2920998e-01
 -7.8122056e-04
  6.8815416e-01
  5.9651447e-05
  2.0527731e-01
  8.8043535e-01
  4.9130190e-02
  4.4068837e-01
 -5.2131270e-04
  1.4511463e-01
  5.3526753e-01
  1.3586387e-01
  6.5675694e-01
 -1.1904017e-04
  1.3413155e-02
  8.8304605e-06
  5.6428948e-05
 -4.8723835e-02
  2.2876987e-04
  7.0121663e-05
 -1.3188247e-04
  5.0570029e-06
 -1.9090049e-04
  1.4716460e-04
 -3.2598487e-04
 -4.7133758e-04
  1.5527003e-04
  6.4360232e-05
 -1.8107372e-04
  1.0134780e-04
 -2.1495534e-05
 -3.1180534e-04
  2.7852919e-04
  3.5653109e-05
  3.0867371e-04
 -4.0435744e-04
 -7.3756266e-05
 -1.0281401e-04
  7.3945295e-05
 -2.4114837e-04
  2.4537760e-04
  4.1584237e-04
  5.6943798e-05
  1.5065735e-04
  1.6927860e-04
  8.8572786e-05
  1.4861779e-04
  6.5690896e-05
  7.0772316e-05
  8.1086822e-05
  4.4412176e-05
  1.2274072e-04
  4.6992020e-05
 -3.4003988e-05
  2.2568260e-04
  3.6093184e-05
 -2.1308460e-04
  1.2522569e-04
 -2.8114152e-04
  1.1072640e-04
 -9.3501796e-05
 -1.8079132e-04
  1.4090142e-04
 -5.6249631e-04
  8.9969624e-05
 -3.5336099e-04
  5.6265802e-05
 -1.4722526e-04
  5.9806585e-04
  5.9280628e-05
  5.2671396e-05
 -1.1967470e-04
 -2.7531005e-05
 -4.7603264e-04
  4.4877841e-05
  8.0415397e-05
 -3.2515510e-04
 -4.7089816e-05
 -3.9299030e-05
  1.8936191e-05
  2.2780667e-04
  1.7148501e-05
 -1.1240815e-04
 -2.6369561e-04
  1.2836608e-04
 -2.9581317e-05
 -1.3194203e-04
 -1.9603442e-04
 -5.1938165e-05
 -2.1808062e-04
 -1.6158687e-04
 -1.3180612e-05
 -7.7958575e-05
  6.2292871e-05
 -1.9995353e-04
 -2.8060185e-04
  6.4863783e-04
 -4.5566016e-05
 -2.8909000e-05
 -2.1705903e-04
  2.2112763e-05
 -2.3750334e-04
  3.4788286e-04
 -9.6620584e-05
  5.8276561e-05
  5.8504852e-06
  2.0812109e-05
  6.5973800e-05
  1.6095881e-04
  4.7386368e-04
 -1.6962251e-05
 -1.0191735e-04
  1.2171870e-04
 -3.1614583e-04
 -3.0071651e-05
  4.0304742e-05
  2.0470225e-05
  2.6752155e-05
 -9.6886048e-05
  1.0270406e-04
 -1.8094855e-04
  2.6896729e-05
  2.3752606e-05
 -2.2609580e-04
  1.2692760e-04
 -2.3590295e-04
  4.9676094e-04
  3.0061416e-04
  1.0759945e-04
 -1.6389092e-04
 -4.1714316e-05
  6.0555496e-05
 -1.7536370e-04
  8.8007539e-05
  1.7262428e-05
  2.6744383e-04
  2.8132290e-05
 -2.4383138e-05
  1.1205141e-04
 -6.9837075e-01
  1.0300340e-02
  8.9371115e-01
 -2.6670754e-01
  2.6934778e-02
  9.9472119e-05
  2.0157999e-01
  2.7956755e-04
  2.0711147e-04
  9.8465898e-05
 -5.3083304e-02
 -7.2820693e-02
 -2.3689646e-01
 -2.3233569e-04
 -1.6475664e-04
  1.6929653e-01
  7.8476328e-01
  1.9055720e-01
  1.1867488e-04
 -4.8262435e-05
  2.4559475e-01
  2.1403803e-01
  7.8262776e-02
 -1.3086713e-04
 -5.0063056e-05
 -1.8445936e-04
 -1.3173576e-01
  8.1598584e-05
  6.4108275e-02
 -2.6403301e-04
  3.2706960e-04
  1.8809682e-05
  1.9806066e-04
 -1.7834820e-04
  1.0016089e-04
  9.8279743e-05
  1.0639861e-05
  2.3358864e-04
  3.2935676e-04
  2.1775817e-05
 -6.5677785e-05
 -1.2818690e-04
  5.0391594e-05
  6.4860949e-05
 -4.1996678e-05
  5.8363385e-05
 -3.9693305e-06
 -2.1829728e-05
 -3.6099189e-04
  4.6619316e-06
 -2.5244030e-05
  8.7573120e-05
 -1.4143337e-04
  4.1651125e-05
  7.4617594e-05
 -1.2188710e-04
 -8.1227132e-05
  9.5296100e-06
  1.0720525e-04
  2.5074243e-05
  4.1507559e-05
 -8.2374841e-01
  3.3321956e-01
  5.2908040e-06
  2.2266751e-04
 -1.8353305e-05
  1.9273954e-05
  2.0258416e-05
  1.1675488e-04
 -5.3521508e-05
 -3.1058240e-04
  1.7126472e-01
 -2.2798535e-05
  6.8882022e-05
  2.4217422e-01
  2.4921910e-01
 -7.9988815e-05
  3.4776103e-01
 -1.5393854e-04
  4.0411812e-04
  4.4432554e-02
  1.2644500e-04
  5.6514752e-01
  1.2230642e+00
  8.2561310e-05
  3.1845633e-05
 -1.3700913e-04
  2.1094350e-04
  2.2857299e-01
 -1.6227433e-04
 -5.0326082e-05
 -1.0821146e+00
  1.1767035e+00
  1.8367980e-04
  1.0631526e-05
 -3.4138861e-01
 -5.5663833e-05
 -2.5482539e-05
  6.6870332e-01
 -1.5699317e-05
 -5.1970994e-01
 -1.0130647e+00
  9.1375427e-05
  3.4385441e-05
 -1.4876592e+00
  6.2838119e-01
 -1.4026964e-04
 -7.1533370e-01
  1.2363908e-04
  2.1532598e-04
 -2.3443952e+00
 -2.7027291e-03
  2.2135448e+00
  1.6563895e+00
 -8.1578335e-05
  6.4821262e-04
 -3.3724640e-04
  4.4470115e-05
 -1.1612645e+00
 -7.4487016e-02
 -3.7928998e-01
  6.7538446e-01
 -4.2718075e-02
 -1.4961042e-04
 -3.8763694e-05
  3.1496165e-04
 -6.4439053e-05
  1.6606392e-04
  8.8866468e-04
  2.8498706e-01
  2.0705989e-01
  6.6475486e-06
  1.1541935e-04
 -2.2617030e-04
  1.0356288e-04
 -2.9547876e-04
 -6.1553132e-05
  3.2655007e-04
  8.7848319e-05
 -5.5835271e-01
  5.2891057e-02
  1.8570136e-04
  2.1970214e-04
 -4.2674187e-04
 -1.1677408e-04
  1.7693112e-02
 -3.3050114e-01
  1.0579462e-05
  3.1853804e-01
 -7.1310639e-01
 -3.4634757e-03
  4.5240333e-04
 -2.6394654e-04
 -1.7450740e-04
  2.9793492e-01
  1.1349390e-01
  3.1012675e-01
  4.3973960e-03
 -8.7905966e-02
  5.9660918e-01
  2.5327821e-05
 -7.4075208e-05
 -2.8848261e-05
 -4.9005690e-01
 -6.3120329e-04
 -1.2642131e-04
 -9.1195035e-01
  4.8286292e-05
  1.0196213e-01
  3.7259339e-05
 -5.0561157e-06
 -2.7484170e-04
  3.6417032e-03
  1.9712628e-01
  7.5025357e-02
  1.4361462e-01
  1.3166526e-01
  2.9546722e-05
  2.0754778e-04
 -9.0409529e-05
 -5.8493846e-05
  2.7631044e-02
  1.1337906e-04
  5.4700835e-05
  1.3769252e+00
 -1.6860882e-02
 -1.4283975e+00
 -2.6456345e-04
  9.1693946e-05
  1.6601305e-04
 -1.4415691e+00
  1.1751995e-05
  3.7134624e-01
  2.3111486e-01
  4.5303222e-02
 -1.1120142e-01
 -1.3059151e-04
  4.4150136e-05
 -2.4416545e-04
 -5.2021587e-01
 -5.2297767e-04
  9.4602966e-01
  7.7639264e-01
 -1.2115053e-01
 -5.8932885e-05
  1.8888109e-04
  1.1175101e-04
 -1.0977917e-04
 -4.7582150e-01
  9.5530176e-01
  1.3679037e+00
 -5.8189831e-05
 -1.0715538e-04
 -1.1227079e-04
 -3.9222353e-04
 -1.7659593e-04
  2.6308867e-04
 -2.3903798e-03
 -1.5534276e-04
 -1.5719748e-05
 -2.0670055e-01
  9.6780546e-02
  1.6140262e-02
  1.1687111e-04
 -5.4442702e-05
  4.4334640e-05
  1.6912006e-02
  4.0545419e-01
  1.4055315e+00
  2.6138681e-01
 -1.0024706e+00
 -7.6285265e-02
  1.0204435e-04
 -1.1522391e-04
 -3.4312220e-04
  6.1588533e-02
  7.2882742e-02
 -3.8923336e-06
  1.7212194e-03
  1.2925330e-01
  1.7291230e-05
 -2.2205600e-04
  1.4597889e-04
  2.8356124e-04
 -9.3149233e-01
  1.2574165e-01
  1.9727029e-01
 -5.9681356e-02
 -1.8915498e-03
  3.7360031e-04
  1.6109846e-04
  3.2786167e-05
  5.5268948e-04
  4.9506557e-01
  2.8655060e-02
  2.2738035e+00
 -2.7901959e-01
 -1.3159332e-01
  9.9637073e-06
  1.7509260e-04
 -2.8321250e-05
  1.7014414e-05
 -5.7777185e-03
  9.8871030e-02
 -4.7509757e-01
  3.4524573e-03
 -7.4610442e-02
 -7.8061046e-03
 -1.6350720e-04
  5.9465691e-04
 -7.0402115e-05
 -9.7680688e-01
  1.9332154e-01
  1.8476561e+00
  1.9805558e-01
  1.2130999e-03
 -1.3807918e-01
 -3.3976685e-05
 -2.4230446e-04
 -1.1397024e-04
 -2.6738247e-01
  1.2667665e-01
  4.0898737e-01
 -4.7657371e-01
 -8.2964174e-02
  8.0447383e-02
 -1.0277756e-04
 -2.7602506e-05
 -1.1163473e-04
  8.9671707e-01
  2.2593270e-01
  2.2264780e-04
 -1.3707964e-04
 -1.5842389e-04
 -1.5751849e-04
 -1.0891096e-04
 -2.9782019e-05
 -1.1430847e-04
  2.6596829e-01
 -1.3942283e-03
  3.4017346e-05
 -6.1161193e-04
 -1.2494530e-05
  6.8793172e-04
 -1.6543934e-04
 -2.4482692e-04
 -7.5989854e-05
 -3.0669221e-01
  7.7918178e-01
  2.7672809e-01
 -3.3702281e-01
 -2.6521325e-01
 -3.1344985e-04
 -1.5495029e-04
  5.8627727e-05
 -1.9122930e-05
  2.8865623e-01
 -2.7268234e-01
 -1.9120996e-01
  7.6419979e-05
 -1.0115450e-01
 -1.2428233e-02
 -5.8835023e-04
 -7.5337768e-05
 -7.7218145e-05
  3.5996413e-01
  9.4148353e-02
  2.0702343e-04
 -1.0231760e-04
  3.1151326e-04
  1.7992283e-03
  3.3191757e-04
  8.6551801e-05
 -3.0738385e-05
 -1.5178791e+00
  9.1498619e-01
  2.4799916e-01
 -9.4056107e-02
  4.8519756e-05
  8.9129528e-05
  3.6071026e-04
 -2.7181732e-04
  4.3240478e-05
  4.8305672e-01
 -3.6880112e-01
 -7.9662032e-02
 -5.9390550e-05
 -3.4953713e-02
 -1.8301865e-04
 -6.3669009e-05
  2.7633554e-04
 -1.3582541e-05
  1.4060495e+00
  3.4320707e-04
 -5.0521794e-07
 -8.1555180e-02
  3.4290765e-04
 -2.0338946e-05
  1.8824691e-04
  1.1051560e-05
 -2.1962880e-04
  6.1476606e-01
 -1.2981563e-02
  3.1560415e-01
  6.0676557e-01
 -4.1321155e-01
 -1.4572731e-01
 -4.7510982e-04
 -7.1639275e-05
  2.7127124e-05
 -7.7275932e-01
 -3.4799325e-01
 -5.6001246e-01
  5.6414742e-06
  2.5244718e-04
 -1.2861764e-04
 -9.2739647e-04
  6.8905215e-06
  2.0085971e-04
  1.8103104e-04
 -1.6478950e-04
 -1.6540250e-02
  4.7115892e-01
 -1.0427512e-04
  1.2506222e-03
 -1.0120220e-04
 -2.9565668e-04
  1.9026216e-05
 -7.5094175e-01
  3.1536973e-01
  5.5283559e-05
  1.0655711e-02
  4.3110978e-02
  1.5530079e-05
  1.1686389e-05
  9.4040304e-05
 -2.8953943e-04
  7.0356482e-01
 -9.3007755e-01
 -8.1430596e-01
 -1.9998342e-01
 -4.3999813e-03
 -2.1378672e-01
 -1.9718749e-05
  1.8276989e-04
 -3.7998474e-05
 -7.2553760e-01
  2.8045365e-01
 -2.6103349e-05
  5.6722659e-01
 -1.0664803e-02
  6.7282259e-03
 -1.9391265e-04
  2.0911068e-05
 -2.4154443e-04
 -8.3094823e-01
 -1.1556291e-01
 -2.0020045e-04
  3.7702996e-01
  2.9174811e-01
 -2.1963660e-01
 -1.9525974e-06
  7.6042081e-04
  1.0055378e-04
  5.2024698e-01
  1.6952112e-01
 -2.5793299e-01
  1.0375203e+00
 -8.8817884e-05
  3.5979191e-04
  8.3159568e-05
 -4.7137859e-05
  4.0299111e-04
 -2.7232794e-02
 -1.7901178e-01
 -4.7077066e-01
  6.0644981e-02
 -3.7777150e-01
  1.1581121e-01
 -4.2327889e-04
  2.3592955e-04
 -1.1571790e-04
  1.2562802e-01
  1.5345939e-01
  1.0398684e-01
  4.3745291e-01
 -8.0001408e-01
 -1.0983162e+00
  1.9806717e-01
 -3.8637206e-01
 -2.0743220e-05
  2.1977255e-01
  3.1884643e-05
 -4.1457307e-01
 -1.1050292e-05
 -3.2760963e-01
 -5.0711000e-01
  6.6822773e-04
 -1.0432623e-01
 -1.4647721e-04
 -1.2262331e-05
 -1.2463315e-04
 -9.9886835e-05
  6.4615123e-02
  2.7722993e-01
  6.7424208e-01
 -4.1064024e-02
  7.0102206e-03
  3.8200174e-02
 -9.0634957e-04
  1.4775417e-04
 -2.7697212e-01
  5.1506037e-01
 -9.9703306e-01
 -1.3665923e-01
  3.5793933e-01
 -6.3766855e-01
 -2.9078415e-03
  1.4375880e-01
 -4.6673621e-04
 -5.3195670e-02
 -8.4455945e-02
 -5.8405541e-05
 -1.6707445e+00
 -1.5425062e-01
 -5.0388649e-04
  7.2288567e-05
  1.4298251e-01
 -2.7489799e-04
 -1.7769160e-04
  1.6851753e+00
  4.0235242e-01
  5.4717064e-01
  3.9262176e-04
  8.5292710e-03
 -1.0369705e-04
 -1.1089792e-02
 -1.3564178e-04
 -2.8664643e-01
  6.7588282e-01
 -5.6382036e-01
 -2.9155058e-01
  4.5424834e-01
 -6.6632599e-01
  1.4387138e-04
 -8.4635317e-01
 -1.8267006e-04
  3.7035038e-04
  1.0057822e-01
 -3.9039272e-01
 -1.8842119e+00
 -5.9958678e-02
  3.3495198e-03
 -1.6623468e-04
 -1.4567830e-01
 -7.3007699e-03
 -4.9687260e-01
 -8.9432311e-01
  1.4209376e-01
 -1.1741372e+00
 -4.9654761e-01
  4.7521193e-02
 -4.4691142e-02
  6.2374091e-01
  5.6850651e-05
  1.2718230e-04
 -6.8364227e-01
 -9.0178073e-04
 -4.8242513e-02
 -7.7790042e-05
  4.4101649e-05
  1.8283708e-05
  2.7228922e-01
 -1.0484104e-05
  3.5117328e-02
 -8.5359541e-05
 -2.9918281e-04
 -5.5684291e-06
  1.1894099e-04
 -2.4643945e-04
 -1.0213784e-04
  2.2834110e-04
  3.1924649e-04
 -9.9310222e-05
 -1.9216871e-02
 -9.3508766e-05
  6.5792412e-01
  3.7042200e-04
 -8.6522261e-05
  1.6101233e-04
  1.1606100e+00
 -1.4771275e-04
  3.7336271e-04
 -8.9658844e-01
 -2.6750565e-01
 -2.3761062e-02
  2.9029645e-05
  1.8903537e-04
 -8.3638130e-05
  9.5361495e-01
  1.5137706e-05
 -1.2665648e-04
  9.9869996e-02
  5.8875154e-05
  2.5763617e-05
  7.5746626e-05
 -7.2223343e-06
  4.0156192e-05
  1.3899904e-04
  3.0046522e-05
  1.3528565e-05
 -9.4083846e-01
  1.1280527e-04
  5.7374740e-01
 -2.0180407e-05
 -2.2650527e-05
  2.9675558e-04
  3.6278602e-01
  2.1926314e-04
  3.4024168e-02
 -1.5140186e-01
 -4.4686729e-01
 -8.4518558e-01
 -8.1366816e-05
  6.2509393e-04
 -3.1525011e-05
 -5.0245516e-02
 -2.9531753e-04
 -1.8700882e-04
  4.7892536e-05
  2.7050751e-01
  1.2084389e-01
 -3.7727458e-04
  2.0640764e-05
 -9.4703311e-05
 -5.5337721e-01
  1.0874373e-04
  8.5096024e-02
 -7.6449496e-01
 -4.5956311e-01
  3.0765986e-01
  4.7185249e-06
 -3.9959457e-04
 -2.0037922e-04
  4.7820124e-01
 -1.5471334e-04
 -1.0960743e-04
 -5.1818281e-01
  1.5376118e+00
 -8.2064044e-01
  7.4938471e-05
  3.2262782e-05
 -1.1465116e-04
  8.5052919e-01
 -8.6480170e-02
 -2.9408868e-04
 -2.7160746e-05
  4.0120530e-01
  6.5164834e-01
 -1.8021547e-04
  2.3806426e-05
  2.0309990e-06
  1.0568708e+00
  3.0589063e-04
  8.2477753e-05
 -2.5254560e-01
 -1.0883228e+00
  3.1607367e-02
  9.1107759e-05
  2.1960033e-05
 -3.1876296e-04
 -1.0181516e+00
 -8.6298585e-02
 -4.0623767e-05
 -1.7422991e-01
  2.0355959e-01
 -1.0484122e+00
 -1.0069485e-04
  7.2925977e-05
  3.2466330e-04
  1.3284572e+00
  6.8200199e-05
  1.8267981e-04
  2.7551943e-01
 -3.7136465e-02
 -1.3505942e+00
 -1.0429263e-04
  1.7593270e-04
  3.0739153e-05
  6.3600182e-04
 -5.3053594e-04
 -1.4250699e-04
  6.9539791e-01
  7.2829729e-01
 -1.9306637e-02
 -6.1797490e-04
 -1.4924680e-04
  1.4751648e-04
  9.8301929e-01
 -6.7855022e-04
 -1.7799132e-03
  2.2232536e-02
  1.9839530e+00
 -3.7034470e-01
 -2.2170041e-04
  3.0828814e-04
  2.8406654e-05
  8.0751383e-01
 -5.3802178e-05
  1.7160142e-04
 -7.7480215e-01
 -1.8396682e-01
 -2.6899734e-01
 -3.4059369e-05
  2.8858209e-04
  2.4866019e-04
 -4.1107407e-01
 -3.4303870e-02
 -6.9817557e-04
 -2.1081270e-01
 -2.1314104e-01
  2.7559590e-01
  3.7711216e-04
  7.9344893e-05
 -6.1451597e-04
 -5.2272606e-01
 -5.4469542e-06
 -4.4488796e-04
 -1.6002280e-04
  3.2461714e-04
 -1.1062168e-04
 -3.1258271e-04
 -3.5028698e-04
 -1.4712296e-05
 -6.5670311e-01
  5.3897238e-04
  1.5393979e-04
  9.4148090e-05
  2.0757609e-05
 -4.0416344e-05
  1.2167791e-04
  2.3942551e-04
 -4.1411709e-04
 -1.7281326e-04
  1.7994239e-04
  1.3425329e-04
  8.9207184e-05
  4.6498069e-05
 -2.8155965e-04
  4.4746872e-04
 -4.4770722e-04
  1.6214694e-04
  1.7856280e-03
  1.0744720e-05
  1.0763789e-04
  3.3219764e-04
 -5.2348591e-05
  5.9806916e-06
 -9.6987431e-05
  2.7361880e-03
 -3.3482834e-04
 -9.0973043e-01
 -1.4133322e-04
  1.0040981e-04
 -3.4739735e-04
  1.0899082e-05
 -3.5000601e-05
  1.7347877e-05
  9.6106211e-05
 -4.2366705e-04
  1.1622981e-01
 -2.1571034e-04
  9.5721283e-05
  1.8872372e-05
  2.2564943e-04
  7.3796124e-05
 -5.3041433e-05
 -1.0720616e-04
  2.4589800e-04
 -1.4155266e-01
 -2.7269198e-05
  1.8498814e-03
 -1.6034965e-04
  7.4361589e-05
  2.6281041e-01
  4.0417115e-05
 -1.9826262e-05
  1.5028409e-04
  5.5180311e-01
  2.7408174e-04
 -6.2423380e-05
  5.6735706e-04
 -3.6576943e-04
  2.0049381e-04
 -1.0963752e-05
 -4.4330375e-04
  1.0086111e-04
  3.9993370e-01
  1.5713365e-04
  2.1932610e-05
 -3.9618259e-04
 -2.1139067e-04
 -8.5275009e-05
  3.2709780e-05
 -7.3929165e-05
  3.6882376e-04
 -8.1150502e-01
 -1.6988566e-04
 -9.1226801e-05
 -3.3666354e-01
  7.0114359e-02
 -7.9295802e-01
 -5.0448882e-05
 -2.3473415e-04
  2.6184716e-05
  1.6227406e-01
 -8.2827157e-01
  6.7819035e-01
 -8.2654617e-05
  7.8233083e-05
  2.0491987e-06
  5.2860905e-05
  2.9273899e-04
 -1.7173855e-04
  9.5586586e-01
  9.9810874e-05
  1.8420180e-04
 -2.8418311e-01
  2.1886796e-01
 -4.7666997e-01
  2.6700398e-04
 -2.8184496e-04
  2.3040209e-05
 -7.9663783e-01
 -5.3403950e-01
  4.9247617e-01
  3.1324154e-05
 -3.3830769e-05
 -5.2399307e-01
  2.5344235e-04
  9.6735976e-06
 -1.3188674e-04
  5.9262526e-01
 -2.1287012e-01
  1.1444859e-01
 -3.1068185e-01
  3.4765947e-01
  4.4807181e-05
 -4.4654738e-05
  2.2299997e-05
 -1.4197359e-04
  9.4503289e-01
 -8.0435626e-02
  2.7651894e-03
 -1.0964890e-04
 -2.9165845e-04
 -5.8895355e-01
 -9.5383570e-05
  4.6955141e-05
 -3.9908024e-05
 -9.4926888e-01
 -4.9839166e-01
  5.6583047e-01
 -5.3590961e-02
  4.5190951e-05
 -3.2956925e-01
  7.0575998e-06
  1.1876744e-04
  1.2762636e-04
  4.6473721e-01
 -2.7767057e-02
 -3.8042842e-04
 -1.4317454e-01
  4.1133764e-01
 -9.1599427e-02
 -1.2111089e-03
 -4.0949153e-06
  8.8149420e-05
  2.0546138e+00
 -3.4792978e-01
  6.9349718e-01
  1.4153060e-02
 -2.7205554e-01
 -1.4798400e-01
 -7.9047965e-04
 -2.8007466e-04
 -1.2230236e-04
  9.6397728e-01
 -2.4600002e-01
  3.0846038e-04
 -4.0320179e-01
  4.8307997e-01
  7.1853244e-01
 -4.4122356e-05
  1.1631938e-05
 -2.3680413e-04
  5.3852087e-05
  3.7828155e-05
 -2.9468132e-04
 -2.0602896e-04
 -4.0996089e-05
  4.5593911e-01
 -5.0163955e-05
  4.8235943e-05
 -2.3763665e-04
  1.7863598e-04
 -1.6506689e-04
 -4.4689055e-05
 -3.6367959e-01
  4.6755591e-01
  5.4936898e-01
 -5.1309577e-05
 -5.9681715e-05
 -1.5295800e-04
 -2.7402763e-07
  1.9464453e-04
  1.3356664e-05
 -1.4396913e-04
 -5.4553221e-04
  8.4535056e-01
 -3.0151130e-05
 -7.6996817e-05
 -2.5789277e-05
 -6.3303312e-05
  4.2719337e-05
  1.5958367e-05
 -4.3640140e-01
  5.3491694e-01
  8.0045533e-01
  1.9861697e-04
  3.1901120e-05
  7.6937838e-05
 -1.0393557e-04
 -1.2327946e-04
  3.7835221e-04
 -1.1086952e-01
 -8.1935555e-02
  1.7315954e-01
 -5.4929208e-04
  1.0092976e-03
  2.7713011e-05
  8.0222970e-05
 -2.9777887e-04
 -7.8127670e-07
 -2.2833387e-03
  1.7375079e-01
  4.4201240e-01
  2.1914722e-04
 -7.0459180e-05
 -7.9152531e-05
 -1.5602059e-04
 -1.2746794e-04
  1.0503700e-04
 -2.2509627e-01
  1.5663557e-01
  2.6403347e-01
  2.6834157e-05
  2.4337572e-04
  3.9410352e-04
  3.1366636e-04
  3.3662720e-05
  2.6477574e-04
 -4.4552881e-01
 -5.2553747e-02
  2.6209351e-01
  1.2661656e-04
  8.5439302e-07
 -6.4228334e-05
 -3.3168480e-04
 -2.4851417e-05
 -1.3443784e-04
  4.8275903e-02
  4.8275903e-02
  4.8275903e-02
  4.8275903e-02
  4.8275903e-02
  5.5256224e-01
  5.5256224e-01
  5.5256224e-01
  5.5256224e-01
  5.5256224e-01
  1.4385946e-01
  1.4385946e-01
  1.4385946e-01
  1.4385946e-01
  1.4385946e-01
  9.0884916e-02
  9.0884916e-02
  9.0884916e-02
  9.0884916e-02
  9.0884916e-02
  2.0319927e-02
  2.0319927e-02
  2.0319927e-02
  2.0319927e-02
  2.0319927e-02
  2.1063927e-01
  2.1063927e-01
  2.1063927e-01
  2.1063927e-01
  2.1063927e-01
